0.6170611173638832
-0.23910954041465193
0.5073075840333768
0.0
2.8570124295910646
-2.0343018645034063
-1.8733994584090357
0.0
0.0
-2.7373722870949937
-3.6910080574627004
0.0
0.2826372303238597
0.5343297099151074
0.0
-0.16701139382172117
1.0013143697896993
0.0
0.0
0.3001441288150088
0.0
0.6832498110657608
-0.41010906545296383
2.303737128729324
-0.09712511011349641
0.0
-2.6123355068016663
0.0
0.5747022841683443
-1.6375673342374235
0.0
1.7792311066819106
2.9385152995441293
-0.204911148178226
-1.875179221194653
-0.38398193382311707
1.240221767555839
0.31466304981994725
0.06596474229591126
1.225463415610412
3.1500339955816488
1.0835654078377115
0.0
0.0
1.0607354974345693
3.198247965757892
-1.5135942468777455
-6.610729018001006
-0.48572153127721845
0.05460751647858121
-2.269266490771343
1.7150567355881206
0.0
-0.6494818629160793
0.0
0.0
0.0
4.267262514866213
1.845602775279375
0.0
-0.4580619597808761
-0.4000829567463018
1.9794946672246847
0.6474579370209887
0.0
-2.139413819196718
0.0
0.0
-1.5623948640447782
-2.6361507844562393
0.9376933737649317
0.5699589825320638
1.227636740563337
0.0
1.0155184873715526
0.0
-1.0627949561933037
0.0
1.1013152096321208
0.0
1.1518519824178386
0.0
3.272230181685048
0.5765806737569662
0.5002885375925431
-2.311018520457954
-1.7461591098954528
1.0565833027430531
-1.9275908477704777
-1.7195045734224697
2.666758915010703
0.0
0.0
0.8092785975300629
-5.024927420910701
2.0852906415933607
0.0
0.7373696401249048
-3.6648653030197034
0.12197544304496967
-3.5979321702045253
-1.7189065175383487
1.1394544538659215
3.095398497633198
0.4455070736175245
0.0
0.0
-4.646612374159888
-2.47515265435844
0.20016796850968496
-0.5792601175228682
-0.437001992228053
1.3089880442069315
0.0
0.0
1.5707165568561758
1.7591739637104638
0.0
-1.4138452894731317
0.0
-2.393522629077901
0.0
1.2720254348114621
0.0
2.1761838002846208
1.3668600905753125
-0.3138584470219579
-0.4703571482993941
