-3.0108002130572027
-0.9600199600277475
2.7795512007767362
0.8235136396471284
4.086305659953659
-1.794956989490738
3.1584548680070674
2.380630889170419
0.4850112065112965
1.396084646816278
4.910806108828174
-2.2940944551735294
2.6530465206748364
-0.20650648289596707
-3.359719552967669
0.4853185593131343
-0.8939633807697057
-2.2997455721626947
0.674524734763982
-0.2370100292737594
-3.3508551782210083
-2.8507155738580026
1.3868742293614587
-2.2013186577020054
-1.9579370617798282
0.8889808201925722
-0.10304704492045016
4.073498901937079
-1.5763088797462088
-2.0066996170253715
0.8055965317054355
-0.4329785236834522
3.7813063506916307
1.6395794562566253
-8.827682210407904
3.2429117085879846
2.8849277912355213
3.249379245800593
-5.139017145895464
-1.0851370999496126
2.5824427314936513
3.4200958161976502
2.8529991290934142
2.8203406088401612
1.1345589380374748
2.832626165648484
-1.3549552514066818
-1.028662971609988
-1.523470730858026
0.023912902279886204
-4.511972260937028
-1.3899660603197017
-2.0787536878162944
-1.9437064264213544
0.3426264013076968
1.0107610564676441
-0.3056479625180427
1.0095925801589805
-1.2675557466237637
-3.0359826551128166
4.940545442508788
3.4815326720126496
-3.0886722176783046
1.3050147997633033
-0.3059318384969462
1.7009007248616816
3.298282309955459
-0.8323168482223239
3.5046577656901365
1.609236959446755
2.1936532140343576
1.005047225555629
2.565164204901936
-1.6038772378266553
-1.8229624533533912
-0.5528880750671507
0.09563414829872097
2.0218123947070024
-3.729377049627108
0.11994126901254523
-2.265631945321885
-3.7832353519023654
3.1158103834061577
-1.972099024885112
-0.8917119441490655
-3.663319085424615
3.3501706275693874
0.5750459549368777
4.208715702625168
-0.4975561013182551
3.9334163429460935
3.1818763071056
6.0546554547888665
-2.77244298100858
-0.2650448444013411
-5.653578432832671
-5.48294189841739
0.8789214679994459
-2.0982632630861047
-1.9808752579908249
0.8400710229988478
-3.8431907559616563
2.029788646102327
-1.0802310734585359
0.5120770403496098
1.0023949408356188
3.914310775237009
0.5145250792668414
5.29279405182514
-1.331745871435002
3.4328279832224085
2.656644513462736
3.7782816680876126
1.4056255379792861
2.064374452007
-1.9937187784636983
0.38619261352715784
0.8816183843137912
-3.380888395062466
-4.652153786364119
3.9850533190217043
-2.241745457348446
3.18851174239348
-0.4103601042626549
-1.688624170249791
-1.6786542656957513
-2.8884595583316584
0.549701460675634
