0.03932593709383753
-1.590261654195448
-2.293864333677782
0.7852774596048624
1.2929307690339318
0.7589280547366368
-1.3795309502769082
0.7555149088405304
0.06049834665277961
2.47614717394848
0.42214149439525983
-0.5369414315772703
-1.8901842240569753
0.3994947545649722
1.2923753242042275
-0.23750534215737204
0.3217712118549795
0.5296176922458161
-0.27917591830682903
1.1067875938938179
0.7673782124625764
-2.5595980299017707
0.015558303259673431
3.112068367348647
0.5112315300290019
-0.7471642637939416
0.2451358183239813
-0.6388572440090708
0.5991872310635136
0.4593460246379778
0.6591767820680564
0.09225705730821657
-0.862643977020058
1.449862804219951
-0.5101776103031235
0.13520374475559427
0.7553064612727011
0.6388944326615672
0.5754443800874396
-0.3719773814557183
-0.3572196042768094
0.7938410892245086
-1.5657195802983142
-0.3323268344441867
0.3379480249047691
-1.831416072623782
-0.1843273795136105
-0.22797111835074793
1.255451946142181
-0.39107664179332435
0.8726015519034044
-0.02870559329509494
-0.6782401652564843
-1.0619073037231217
-0.9657097155997875
1.8588355739467937
-0.6842917079777925
-1.324077692419183
0.42851023301231633
-1.4227286014691123
1.3897002889956205
0.5407920634265966
0.19929671415097608
-1.2825712650706758
-1.270696349267975
-0.7664198558546008
-0.44615536341888107
-0.1443593362603328
0.6510602432903645
1.3532088112983915
0.3976386862527282
2.4171383793112873
-0.5372328221435358
-0.2780068350251966
2.141440335114268
0.6062256805154352
0.6342299713049907
0.03416693179993052
0.4583182316525731
0.27278526133745745
-2.77568555697047
1.3143721407655253
0.8187564847485072
0.5208112423477455
0.8452197120336111
-1.2700629386584192
-1.4289619448046853
-1.2932571536883566
1.7299070963819274
1.848802003106871
-0.12031137307196503
0.16920722315456252
1.459043750474809
-0.1960023357708848
-0.7301521897242266
0.8694539790520499
-1.7781014926620031
0.23912800722260052
3.6940166025142958
0.07195291466120801
-0.9789163061925802
-1.0900134125923246
2.2323813405976707
1.6783259691921462
-1.455335522136619
-0.8134109461924854
0.7367423951709606
-2.506575385358001
0.8223627815882265
0.962600316862775
-2.265102610851151
1.0017928865696957
1.0159342551805997
-1.3629862755655955
-1.1493973857680662
3.3078934920202157
-1.0604154311942273
0.052019403184121515
-1.170744109787747
-1.1372639145861403
-1.315317666517585
-1.3319176970350899
-1.418136336179879
1.2505022322641077
-0.4042878066166672
-2.351249421295497
0.3932096366405056
0.8799136771609783
