0.33405054956406394
-1.3248732843723308
-0.4518008402146171
0.38654832227212815
0.8401882287349287
0.42908981291760745
0.23359630687006924
0.03019963311344081
-0.2608327676890083
-0.22958496212228008
0.3723805801488263
0.883555543290499
0.21342576812676822
1.088714193577703
0.39105312767642497
-1.1432336605339324
-0.5476691680500897
-0.531318035245724
0.32563494327313874
-0.22149410775198136
1.2506643800456376
0.6708966407759241
-1.7963882050507651
1.0064237251766301
-0.708393856605606
0.3418013712910697
-0.38673393028637404
0.6109210052377477
-0.8615748450745664
0.6194102884758502
0.6546294286142188
-0.7767038818744185
-0.857313530879226
0.651194041693062
0.714401867285229
1.540918119804805
0.03840744011771051
-0.4175046222353738
0.18924453526193805
0.27304730973705865
-1.0931124759112383
0.5822129476602235
-1.5902983999227571
-0.2914159104057635
0.8334423382818287
0.3761321490417646
-0.7267839792621937
0.011056600971463496
-1.3965298879519958
-1.2115598766948967
-0.45549524047237877
-1.265845500295796
-0.9546890000660736
-0.16087701309205985
1.337535754658388
-1.3380441620324084
-0.41801499554318966
-0.6300894821772751
-0.18547844549405124
1.2220239226885157
-0.6326255061587712
-1.52140724136577
-0.4751871533984962
-0.5142496728600456
0.4440932670346055
-0.5757290784161058
-0.4538793428086796
0.25154077898746735
-0.9556410809110275
0.3495965131794133
0.058293943264277635
0.12457630365394232
1.5162501225184886
0.2709810664657746
0.1081332519666595
0.7710487296256675
1.0061435497757747
0.18261229660237688
-0.272502187005498
0.024834154060421255
-0.32824925920811543
-0.3352190112016407
-0.09773572753178265
0.2650007016665643
0.06303078158223814
0.023282309573208922
-0.7140824042158023
-0.2201415754645776
0.17900637637920494
0.017225508057722466
-2.157898391247558
-0.004348055408892155
-1.6538106283809433
-0.4963670534880748
0.5181511540291077
-1.5821587957022836
0.6453111332566757
1.0697898735512206
-0.4249442138555359
-0.9785033724307931
0.7084177404511819
-0.46873642974423624
-1.4475706494314955
-0.9547048467870507
-0.26253988824960206
0.04853289741057957
-0.690363925493169
-0.5026921282540043
0.018165932417295066
-1.6422731220082294
-1.2753478661457576
1.457163943205071
1.2208374523302261
-0.995509655383384
1.010051154293345
0.6757775243919673
0.7877577840339953
-1.0279129562223617
-0.5715624998046894
0.05985288415538404
0.3581260382276144
1.0321210280108595
0.7300966554367341
0.34116338365218657
0.12977272666673428
-0.9574212847607323
0.09646842740774242
0.44989887272924856
