-1.2834929908371775
0.19102028119443343
1.0034762106261432
0.006059341687302438
1.3692195997871877
-0.2710848233859725
0.6029388242798681
0.42509193991997235
-0.0448342479847557
0.4204793483882102
1.5047953107173466
-0.1443888553925064
0.06517423743101002
-0.23578921088191218
-0.31595672341138115
0.11403333031209871
-0.38531521147205106
-1.0016810102468574
0.43489197280905284
0.0
-0.9002645971226835
-0.28420119594611043
0.09748533247229568
-0.7832122530850698
-0.6237700131846152
0.7446577276584286
0.5108586026233344
1.3645018985230313
-0.01325615350777798
-0.7735626957728597
0.43918066837684966
0.07788317188171917
0.6628055928866131
0.6348243688506864
-3.0097554871478676
0.9166984941465482
0.41510705830852807
0.995623486063997
-1.2883348239817298
-0.43769627466103583
0.986057372784336
0.9337740282542747
0.6590954037127995
1.2862516426223454
0.14562950896361412
0.36741591350391
-0.083524109097018
-0.36745683112794164
-0.005729535548727448
0.3864923636674634
-0.9599207901837389
-0.035329798157513616
-0.18940538139740457
-0.36501439090752213
0.0
0.09760122767666342
-8.115459240840534e-06
0.10184273490075225
-0.43955463089418345
-1.2952715937532242
1.6328000347354572
1.0095629647644824
-0.7401299941671553
0.18379157495377352
0.025879336820209015
0.5455973559433367
1.095022213938198
-0.5764732096183723
0.9849759960825358
0.14530594356870116
0.13869192108362327
0.12237728985713967
0.5351173600989328
-0.027815584441246512
-0.5563928534074559
-0.01770764337611304
0.16620761599952225
0.11588549207938947
-1.3882530919368552
-0.10989580475993131
-0.37495921377345587
-1.0603973670084297
0.5105913780190501
-0.43061480600635155
-0.1653146408453071
-1.159574266699609
0.8495605806123474
0.04496055756546763
1.9550855553385205
0.00016703736234625164
1.2805386290850154
1.0962576097680847
1.6227302005979614
-0.31295162629137907
-0.06480447647496668
-1.6593626792029113
-1.460956485504524
-0.03362747504150752
-0.8039343748751799
-0.11377133149504139
0.7055126129834771
-1.0201470525477323
0.24328882637822247
-0.1650211800380812
0.2067416192528902
0.6772093449898505
0.9862228952283412
0.0006031909936573415
1.6873904561215567
-0.00018646185265789697
1.281363444726003
0.9518157225642704
1.0585076306557264
0.06005530184046091
0.00945246002180856
-0.5862861456949644
0.015009649141972226
0.25869459610937584
-0.5446054594253101
-1.4195187105326448
1.218395058933421
-0.8813103430922715
0.8241401275648049
-0.06457406321714042
-0.11461100180540106
-0.7888629955521722
-0.4899676737461539
0.13183852728002604
