0.6477949743748024
-0.24758551391750774
0.7042975844617392
0.0
2.7353040462937455
-1.8623162323494737
-1.756268298386562
0.0
0.0
-2.5988125430376816
-3.292701072754707
0.0
0.36225043891585906
0.4871024665143788
-0.02131267898362302
-0.20485056244991806
1.0295433236798894
0.0
0.0
0.3334130120473293
0.0
0.6176172766212439
-0.41093191330511186
2.0486626340704275
-0.06636819152318058
0.0
-2.3957275454258355
0.0
0.6067275624751494
-1.5706106946407374
0.0
1.770813734229365
2.6753701871273616
-0.32500320786606246
-1.7597177366035304
-0.3496614130917062
1.2109101728605212
0.4171940157244183
0.13375852878887157
1.3024573591643123
2.7460318285528382
1.0711936057881335
0.0
0.0
0.8943110443002729
2.8256854048232247
-1.313398575196105
-5.824728250904298
-0.5298703784067262
0.14660873825228057
-2.1343152912563648
1.4900327858751674
0.0
-0.5398709892058773
0.0
0.0
0.0
3.7875191646533666
1.548701781461854
0.0
-0.42352010531216033
-0.457462515032167
1.8246610757259503
0.6194196996339209
0.0
-1.9671961007472398
-0.01680095760849492
0.0
-1.4797717952271714
-2.404629370989282
0.9648606602506116
0.6111771169597839
1.0106881552999114
0.0
0.9655132345053447
0.0
-0.9788789090267592
0.0
1.091410408653378
0.0
1.1228347927500026
0.0
3.1758540361869523
0.5698054351339306
0.4973277971485037
-2.1608226107570445
-1.571635906805231
0.9059198834894979
-1.7527882456750945
-1.6367558692928912
2.440519440833875
0.0
0.0
0.7470772401769881
-4.59702526385172
2.0177522801978705
0.0
0.7025086584127977
-3.286824580433406
0.12972107805906288
-3.235044066544262
-1.609507000551075
1.023648051811543
2.8284865419855816
0.5454483730790434
0.0
0.0
-4.22387113767611
-2.3135050029707123
0.11449794846424052
-0.5485418329992771
-0.26014993500172495
1.28738897536279
0.0
0.0
1.5070237042548815
1.5152870931968885
0.0
-1.374787772583791
0.0
-2.1481914030192137
0.0
1.1815856635399637
0.0
2.0219947473366875
1.2771819280434722
-0.2047315107051008
-0.4378996392257024
