0.5376372699496675
-0.3931595247622658
0.19764151280831072
0.025830830350180724
1.1686146301739386
-1.1173688264730042
-0.7845689469566046
-0.036849834392235166
-0.12151100823488876
-1.4063843188366574
-1.7110801954181794
0.21554481345069626
0.4718208451732272
0.6056854071283994
-0.10322341553845467
-0.2085998047084912
0.4227326891143697
-0.10820839454066652
-0.26735957452725
0.3653903048135563
0.20943978889727885
0.6001304458775599
-0.36427063809015403
1.2432334639482907
-0.5253567041553254
0.11016893911787239
-1.289077985583714
0.05130803671329448
0.5313313963369662
-0.9104089319483002
0.14428262549906434
0.8785807905935181
1.5210404717596115
0.010293175256751377
-1.026048822083732
-0.4939381419678149
0.8663990609275899
0.22612514568297887
0.23060052592288435
0.5539215555301068
1.6248896495428637
0.7605665059391375
-0.504981942876797
0.19820664238205005
0.8988895331734702
1.7954650097603615
-1.0903248117528772
-3.1998043168780255
-0.3736382591536614
0.2847594340492279
-1.0272394261886615
1.1512720749326975
0.21707942471998126
-0.5207878195428843
-0.1186796681649407
-0.12457610143890377
0.07338202911442199
1.9707750178154664
1.2128946967171528
0.1791699060627929
-0.3536058651684399
-0.4986812616890145
1.05916460686899
0.6447883247719701
0.3561742017426977
-1.1051968537405406
-0.3804147402660385
0.18552883595613523
-0.8994774748553119
-1.4243677219880182
0.5995173701826031
0.37161919772148544
0.8871879812727068
-0.1672453371641351
0.6629241190157927
0.20914523261556536
-0.9808753036723834
-0.2883094809716945
0.6059312097915118
0.05239141638354234
0.7122437987438563
0.22845198134906575
1.1603020538079476
0.38231765474532714
0.39509129747555405
-1.2222198698467432
-1.1622683128580653
0.8236332547604516
-1.251127642881571
-0.9266144889639549
1.380308843090992
0.09652098201754981
-0.1529483668407507
0.5857701178968493
-2.4267278757105393
0.8391823049190859
0.07369764721706944
0.48813169828921427
-1.8309531351878383
0.44178660897553973
-1.893301011099922
-0.9597666574041849
0.7713206542897642
1.61354231027112
0.254696651191592
0.12377372624815093
0.0979674299249964
-2.117996045415029
-1.0906091649250305
0.3704146315815157
-0.44950599863333923
-0.5642385547027431
0.7551348237422293
0.002737864244964725
-0.18209068077614302
0.8434084590052411
1.1390164501909361
0.44031364459685385
-0.5417262788721412
0.054728610490095746
-1.3528875619591172
-0.041604974403379825
0.755062495314958
0.007403134028357078
1.0720359704353224
0.841169174475323
-0.5897438373840338
-0.45452649342621504
