-11.066290734416498
0.0
0.0
0.0
2.36347239411446
-12.39343765351178
-2.530343541007918
0.0
0.0
-0.19028393138335098
-2.9734530725863535
0.0
0.0
0.0
0.0
4.743004795654386
21.118061555578283
0.0
16.660896723320075
0.0
2.493674079159333
0.1455734184952688
-0.1363491409721618
-4.210511687164302
-2.8929010059785307
0.0
-1.9594322152284585
0.0
0.0
0.0
0.0
25.955506525580127
-1.3138983185694901
2.9177804927156785
-5.3746738919154105
0.0
-0.21832657893055424
0.0
0.0
0.0
0.0
0.0
0.0
0.0
0.0
0.0
0.0
0.0
0.0
0.0
3.2545766143129136
0.0
0.0
15.236800602797546
0.0
-4.706349146200636
0.0
0.0
0.0
0.0
0.0
-0.23885562093705714
5.9190768356845815
0.0
0.0
-7.046345982066601
0.0
0.0
0.0
0.0
0.0
0.0
0.0
9.4969776153671
0.0
-0.5126535743409631
0.0
-5.417525403772032
0.0
7.562423207838676
-1.8902034462237434
0.0
0.0
-3.7418614058836224
-4.985312540277143
0.0
15.302639457148313
-0.9518799424776434
0.0
0.0
0.0
0.0
0.0
-13.705688219178755
3.116422802371163
0.0
4.201439531649028
-2.5246257623285473
0.8121417463526457
2.3924519579520784
0.0
0.0
0.0
0.0
-4.825368399067338
0.0
1.9334458488868034
-1.963020670229986
-12.152128038682877
0.0
0.0
4.4091616142826675
0.0
0.0
0.0
0.0
4.215665747531161
13.890187529702304
0.0
0.0
0.0
0.0
-9.215327777854965
0.0
0.0
0.0
-8.173122395497593
0.0
