-9.676537303423311
0.0
0.0
0.0
3.3379128462535435
-10.079782539246445
-0.9076727410797717
0.0
0.0
-0.4303342343196747
-2.1301355383336666
0.0
0.0
0.0
0.0
2.20699566205981
17.89834598633988
0.0
13.651822032774042
0.0
2.036845581550628
0.6511367269467745
0.0
-1.5136354534767726
-2.1648695304995633
0.0
-2.1930156165533883
0.0
0.0
0.0
0.0
19.05456347409525
-1.0003935288576526
2.091609412919691
-4.009060207874576
0.0
-1.829473623206531
0.0
0.0
0.0
0.0
0.0
0.0
0.0
0.0
0.0
0.0
0.0
0.0
0.0
5.196793486823276
1.1201682923980079
0.0
11.345757565690572
0.0
-3.0154577399751124
0.0
0.0
0.0
0.0
0.0
-0.05000629069667299
4.82252728609184
0.0
0.0
-5.159451262407643
0.0
0.0
0.0
0.0
0.0
0.0
0.0
7.909960812543096
0.0
-2.1419313746729447
0.0
-6.371092895545593
0.0
6.332804129996363
-1.681021632500845
0.0
0.0
-2.162272042776242
-4.50608047877143
0.10502601725762183
14.588616273016955
-1.3016019795427223
0.0
0.0
0.0
0.0
0.0
-11.054769136570856
2.686301725203666
0.0
4.305995130246906
-1.4043370859188404
0.9164020279441203
3.0381040881795345
0.0
2.3603889271268264
0.0
0.0
-4.105182036320757
0.0
3.27018406630787
-1.2378645261154304
-9.406177695930792
0.0
0.0
2.9538190998096
0.0
0.0
0.0
-0.3194664720552287
4.950038682049285
12.406713233083854
0.0
0.0
0.0
0.0
-8.416020366806974
0.0
0.0
0.0
-7.577639975238062
0.0
