0.0
-3.876750350660796
-10.98804215709085
2.1003995313019486
2.864198795395767
0.2676955746090405
-0.4963297125758691
0.0
0.0
17.91638487089336
0.0
0.0
-2.3056814001307444
0.0
0.0
-0.016029136675192443
0.0
6.193670379382761
0.0
3.6791944347329855
1.7522266416033045
-7.917117592993254
-0.027082095183172457
10.410300417674605
2.994796331210015
0.0
0.0
0.0
0.0
0.0
0.0
0.0
-7.33513958790614
0.2792549694283408
0.0
0.0
0.0
0.0
0.375571654498592
0.0
0.0
0.0
-8.676879434326858
0.0
0.0
-4.160288975899354
0.0
0.0
6.395073114104584
-0.260001241843296
0.0
0.0
-4.098399520404642
-4.433024033700628
-0.01320762223685655
7.478300537045764
-1.59600760567909
-5.347746775882156
0.4537353026869662
-3.1523647778219486
4.8670655432339185
0.0
0.0
-4.183964670175372
0.0
0.0
0.0
0.0
0.0
3.8771576707227995
0.0
9.395195600391707
0.0
-0.36097548405762453
2.7557348861656457
0.4909263101587932
0.0
0.0
0.0
0.0
-15.889845041968778
5.673691564317967
0.0
0.1904230475107498
3.5214939987315006
-2.202661104688305
-8.575299421257716
0.0
6.38623495031118
7.715833753643864
0.0
0.0
0.5036000802914443
0.0
0.0
0.6781528756878556
-0.7523470473247571
0.0
15.753884431602765
0.0
-2.73276351604562
-3.3661903360749204
8.879429276687162
2.3959835866213854
-2.5221593256563697
0.0
0.0
-10.642496937208385
0.0
4.801915934259861
-7.557138688641998
0.0
3.4784728953525312
0.0
-1.9889547091422108
16.829656709176195
-0.10720764683671352
0.0
-2.5542745916189222
-1.0614910078653583
-3.3040323360537474
-11.120913151700037
-4.449198795213363
0.0
0.0
-15.479761824593796
0.0
3.561788914207537
