0.0
0.884232059328936
-1.6814550463987448
1.1844349839822415
-0.4524555201412035
-0.393010784767316
0.43511449041818984
-0.5620956878047929
0.0
-1.3518254755595842
1.8132727142614793
-2.5452046647142597
-1.006572449195619
0.0
0.30364928963869203
0.0
0.47269977505110605
0.4476470552944837
0.0
-0.8929321196746562
-0.39092019751216384
0.9653371606092043
2.6161537599436455
0.0
-0.9045910336557882
0.0
0.0
0.08706628897891643
-0.8782498258077752
0.0
-0.7295508462818289
0.23009424812777127
1.6940620216780486
0.0
1.2579053018345532
0.0
0.8440542491063611
0.3215428993758638
-0.015978569951576795
-0.5678017248085069
0.0
-1.575378121625259
-0.6140277793433441
1.3821087252975648
0.2326450629046847
0.18358650451228514
0.5196052790956979
0.0
1.1822881397977045
0.0
1.677600249799945
1.403158951544961
0.4541339048731141
-0.2766473717569202
0.0
-2.0612273294083203
0.0
0.5045350381088326
-0.07362710813901363
3.6206762510553223
-0.22798781350906225
2.205316559759155
0.0
0.6673637780310294
0.0907801271135953
-0.477988791686025
0.0
-2.1600669319833266
0.15730053584628453
0.0
0.24525419276915783
-1.3193206826444503
-0.7304126327433551
1.356795035846411
-1.4187644096484235
1.375004988730467
-0.41153654133740813
0.8234321692303157
-0.24769672366178655
0.0
2.348136286495904
1.7446178766500264
0.0
1.1022322199143817
-0.3883704665676529
2.022632175100863
0.0
1.1248452570660055
-0.2266262074335903
-0.32843366313119365
1.106210552334049
0.0
0.24284074745681167
0.22456131261851917
0.0
-0.13175518455139562
-0.5323765938076506
0.0
0.0
0.0
0.023400567123144957
0.0
0.13332304349329296
0.0
0.0
3.955120379009705
-1.157697446276583
-0.014232330640053154
0.20725197946681967
-0.23669136903199287
-1.0446616854563167
-0.2163983554175611
0.0
-0.7525705794153702
-1.1741890845528868
-0.5459840284283918
-0.26663737250470027
-0.5626550616582123
1.0864411079720546
2.8969435410734734
1.6701589390133724
1.2561302972805062
0.0
1.2538262861759908
0.0
-0.1995462120182563
-0.834274784316535
1.2183373097396684
