0.3476157205586584
-1.3737559242486743
-0.5320361242601008
0.4380872404410038
0.8885786076041302
0.43190901092444406
0.30820246328285467
0.023276373544691472
-0.0048781651791505246
-0.23901057416598942
0.2473424061484578
1.1299851059693735
0.2371031863964795
1.198032323207776
0.1589793887919996
-1.2251158248378096
-0.5432482569821682
-0.5336118988921338
0.1272240757315772
-0.03223740000494416
1.2644155481708037
0.6217852922347106
-1.6822153726272286
0.8380055303196626
-0.6949672182147785
0.47407066352494953
-0.6131297179542151
0.5125543932316088
-0.7378833152515649
0.7329616894927287
0.47509460661295816
-0.8507480123463816
-1.155182775272909
0.687936354236967
0.5399583747632369
1.2461092165570367
0.2178561508019384
-0.28593631790965973
0.09669458852689146
0.11401850051755258
-0.9100390359030989
0.4196058333402605
-1.6657325522197202
-0.14010189007268073
0.6500912190919369
0.4282256137223494
-0.7767465514925777
0.13850243421868785
-1.5070942139860397
-1.0519590915908854
-0.5635648262208942
-1.3778475841714883
-1.059608729434992
-0.4364395822844484
1.0652480796499062
-1.098050493285053
-0.181186272436433
-0.6999979724670988
-0.009494407725830236
1.1814001232003786
-0.8200136164351225
-1.316237670594204
-0.6423470057213972
-0.7220886317552444
0.6861315469256345
-0.5165219884167892
-0.6425512286432018
0.33331173067135317
-1.183589097476332
0.27834952333239915
0.02232406527283257
0.27438205476637245
1.4986937902459339
0.09127138181673969
0.21953142079110713
0.5460498683615941
1.0368834171950756
0.3135574905168036
-0.2841869499125099
0.21828452280147997
-0.3381529834592718
-0.4466827397247908
-0.11291377825500853
0.3648617369196519
-0.05718037639496404
-0.026946589644265467
-0.5443317531441614
-0.1915054757003269
0.2578872962383599
-0.10618745224786129
-2.3914710700166486
-0.03042418946895058
-1.7049816947166074
-0.6712162657171777
0.6448093114767657
-1.8132830389159194
0.730439515314385
0.7539700432514304
-0.5813729849475814
-1.0585819267056316
0.8318203182043764
-0.3620559685571488
-1.6184624702999213
-0.8418853744789448
-0.5574125967361906
-0.5574744564683024
-0.36399282124693877
-0.5841091761844925
0.17489441347260257
-1.6007566238711903
-1.3633054436051708
1.5873281715027436
1.313519124113102
-1.1877562692607384
1.1750378462450903
0.574655800007758
1.0878904912769987
-0.8394111402880051
-0.6068738527580775
0.16074014019525074
0.4193348484001792
0.904222656452848
1.0256603943981641
0.24878562822316178
0.24167084994817256
-0.802580397759978
0.33676911041946334
0.459262363292297
