-1.9903987377079628
-6.398362241580642
-0.591470346449852
4.45637669711224
-0.15170391048551532
-0.8862358782090423
0.13287133098738957
-0.41611259100017556
5.587607320878319
-4.485255198689608
-1.5512414713907945
-1.109131249423906
1.3994298874988007
-1.337303467102092
0.019406903776736793
0.6835653796709197
0.519919375466457
-2.0814834875499653
0.52809764105092
-1.9272435172053146
-1.6234296863681321
0.23762454949758505
-6.454295280079876
2.517739719147097
1.2925518128579032
0.7905820784164103
-0.3202111881102773
3.5654084394184813
0.811921332181272
-3.2699671768481444
1.399020458704889
2.1508199177797835
1.627836744912087
-3.996114716488778
0.1304101447114467
2.811502738797592
2.276772487205772
-1.5077496389033336
-0.10291663583483798
-1.7124819685462225
-1.8558390531649365
1.8486793511977675
-1.1613842241405568
1.595011246165355
2.8216216168705475
-0.2942406007434542
0.9643922352082941
2.1384827640421538
1.5830072632992398
-2.9108628052361087
0.0210666531676246
-0.02108842701211374
5.405634113900789
-0.48653511045181863
-1.9981898824509114
0.5596839637181346
-3.063366217250915
1.57436545754255
-2.8956684635604524
2.0077469816607434
-1.7816850814362368
-2.4032042045349407
1.0332660639856022
2.969232484296082
1.6711013365830676
-4.219254968245783
0.14204385091021526
3.6700485564430183
-0.8193215707640793
1.4380652500592743
-3.8685692579042694
1.464445917997052
-4.180823648729706
3.1605875654182762
0.6650879249822017
-3.6573577346490964
1.4194432156391406
3.533542490194362
-3.401498787479811
0.8140618855444153
-1.4591821215264953
1.0477575922217826
2.226369512739694
-1.1294148227481744
-2.039266930797642
0.2505619544656259
6.202040250375726
-1.5196096797894643
-1.654632355314418
-2.0785328919663986
-1.9573132706195333
5.636284033459021
-0.03944245111802996
4.049677178928368
-5.6130124616216435
0.5583157933745371
1.222897498416192
-4.176746744684161
1.2896132581149995
0.867878579786084
-0.6013447438235056
1.0426269090844684
-1.3001453936622849
-1.355050540070505
-1.1754505659192183
-3.886516216432677
1.6640414882915135
-0.028346002748898695
6.147325944676152
-1.0986559890498502
-3.701817260587136
1.8394140365351848
-3.5742995082129747
3.7408586022487866
4.416863583755919
-8.282859959574665
-1.0493630312104545
-1.8342909395888976
-1.9161405908115379
1.099484024453756
-2.939541357882151
2.5446501833282005
-0.42408059449718
1.1898596745996912
3.5249996951598677
-1.0778554119978356
-0.3640980136615171
-1.9738720095275666
