-0.5429957749674985
-2.0584414294279916
2.4370778877834733
2.2936877751939377
0.06589435818448465
-0.8812052690647004
2.1388890162678904
-1.2431296155022695
-0.9619360661175701
-0.2932464778268955
-3.063274011036974
-0.19004234338503734
0.7066843082047943
-0.9522775013382926
-5.910159657976978
0.4608935665729176
1.9829492475768822
-0.8294035017978869
-2.943791957135874
3.4830034859578816
1.4481502554250165
-0.6333032963680075
1.9828393016478978
-1.8400421067585309
-1.4140498843958769
2.947437053695798
1.0837131099683448
0.6568206123424958
2.1507598534209422
-0.5905130203325376
2.132043855227434
-2.8266562524819125
-3.546733069672138
-0.10751955267813576
0.44955165681420806
4.713936876433922
1.8617593812453312
2.623068730174937
4.092759451057072
-1.5867125199523746
-0.5452356873000056
-3.8511816739377056
-1.0885856992841616
2.865133438597726
3.3258218321354063
-1.4342696195769389
-1.0472482073291403
0.8142412277997043
-1.6893282502357694
3.1176625743287976
2.343447957159472
-1.489891076743545
-0.8551777352135641
1.6202070292682194
-2.5265276680702633
0.5262950270999021
-2.11133523252949
3.3032781537059437
-0.21351147591231842
-5.216437753173422
-2.0265694772007583
-1.0358363309180953
1.3633169382537746
-2.047736505231186
0.8114751630405219
0.21719492985363398
0.027147059234339674
0.7166743645049581
0.9942926188436573
1.096845583313822
-2.084234536936745
1.5003681710994845
-1.8276089182054773
-2.0858821488878405
-2.0176880551691663
2.2469644791345558
1.337146112897417
2.0945530204675977
1.2403343764908046
-0.39945850342542877
0.012960902948832417
-1.4675876391055924
0.15485420317174683
1.6345479090154573
0.33885270901356207
-2.2305091919015005
0.8087800533735002
1.0741218026129602
-3.472668117863337
-1.2437061100273286
-0.5783833100317156
-0.3283191911284102
2.1372398236487995
0.02152519273458943
-1.1052677192432665
-4.550622894548244
-0.42195434081927485
-0.12974774301306807
-1.2893687530237565
-1.8790621955602265
-2.2629755998682075
-2.4574239295155924
-1.2131304247596673
0.9429745165851164
2.818389945520488
1.361674831640632
-0.724510371070286
-1.343935451164607
-1.9762475913519886
-3.1776975672310743
-1.3853780230368036
-0.8446080879603366
1.4238543676877136
0.009240872685109012
-1.207289337077773
3.30647444536823
-3.286296299272951
1.8792785137634291
2.78301105311757
-4.136376728032764
3.5013321297444637
-2.3374524004461654
2.84480461759413
0.9582329548834136
-0.44929843809587844
-0.4160813565865665
-1.8585409003431064
1.5311565649306256
