-0.03928252635172176
-0.0536205785616483
0.17287943853209348
1.1090389203889182
0.00028072663390746794
-0.011320674260333629
0.5376601775694475
-0.006558892168606144
-0.7466695837414724
0.12978145501348867
-1.259806168786578
0.2169178126065303
0.0
-0.20237172848372384
-2.015390463953221
0.30114139588820876
0.34781403002077876
-0.001037708143647262
-0.8252392158301987
0.9868949320314249
0.318724173632711
3.221746145462854e-05
0.7576292141705182
-0.8270962952854521
-0.5865985008742624
1.3246688879770512
0.1665323904283625
0.0846406492022586
1.2131187914566877
-0.05299803748179928
0.5952217236826403
-0.9445396042873564
-0.9846899728067223
0.0
0.0
2.3231098854400143
0.25695025104026625
0.8096107997261464
0.8838178054080981
-0.49705779423108637
-0.102718667281795
-0.9083166537787304
-0.0005114117881151284
1.4130327860590557
1.795035695708752
-0.19118007085221111
-0.21788691947937924
-0.2175961702219831
-0.6621018276535648
1.1050399346837556
0.2900365855112729
-0.33132254397819233
-0.019888099138140977
0.7955722515775799
-0.8219906121181997
0.0
-0.6996689774022574
1.5035543750359612
-0.0005735122234983833
-2.1057973575923272
-0.26548258782490974
-0.031929300419219084
0.19731342104303315
-0.19738692177512193
-4.2248899471481664e-05
0.3506833316403533
-0.0298045368271945
0.08899970781973368
0.19133689018887862
0.09752767691583558
-0.4483694474890372
0.8379210931745797
-0.4315310025538869
-0.5547313587446498
-0.20274406601922687
0.7257390290132005
0.9719073075411212
0.01147212911087039
0.8250235116315666
-0.062439160397208954
0.5206781741582558
-0.6731603213629159
0.035453575018891556
0.49110332358317116
0.7592160261710702
-0.7490660110498863
-0.16215356195809774
0.08814751195323244
-0.8074059643615549
-0.19182561519604452
-0.4031790913826843
-0.017110291954073525
0.7398704305319606
0.26995071218904265
-0.3103369296141821
-1.3718693317975472
-0.4352614491001936
0.24530956418741337
-0.5845106172002914
-0.3828260730871452
-0.5561840699281085
-1.047655600588099
-0.8209025995634525
0.0005793948924702832
0.8123243653407306
0.008879507543881822
-0.2793036492650869
-0.23941993286111654
-1.4319460858432593
-1.6246856818430988
-0.18488322016478745
-0.18963126060259106
0.6400561136809099
-0.5380028440048547
-0.45996837936595886
1.3232726847498526
-0.7107632227210492
0.20628126238364172
0.9968183188607324
-0.7892068398553748
0.8238430803025848
-0.7592072114642854
0.5599501880304235
0.7915541916773196
-0.6428820050327374
-0.0697277528471673
-1.5125771281787566
0.8060032182752074
