-1.764465777832575
-0.9383575657976984
-0.5560228163471352
-0.8506360923752034
-0.34679116841561425
-0.716593383358168
1.6487751485547602
1.0489336181702218
1.2429707602248432
1.7550638856776735
0.5858790565891823
0.9896409497508634
0.5458912751986702
0.15096368374315294
-0.49582652773768043
0.17937142654811475
-0.3220311360238693
0.20811736405508394
0.4570880660404489
-0.7616331417517787
0.6534906383790893
-0.014111404110792496
0.6416309378869525
0.045092838220127315
0.5931077287179106
0.383457600754793
-1.2541149454513894
-2.04868797044685
1.6596706724451233
-0.15020617701147743
0.5954844754384742
0.17409005440531103
0.008556076642283021
2.8810045709680825
0.9428601275515625
0.7788592057412171
-0.3378398044989461
0.24320168372566217
0.8753614455989425
1.9805185563419532
-0.9371552073430994
-0.2256515438271674
-0.4113511052765262
-0.36898488414038605
-0.8697810386277333
1.9041142949551288
-0.681090161261612
1.3349140784998155
-0.21221896384572503
-0.03830268514362291
1.3238997878614835
1.1953421700900597
1.359013511794209
-0.921828459100399
2.1893346705579613
-0.440861961339631
0.9344836133783502
1.003463586524438
0.03064068811203931
0.6627526082665199
-1.4770901671455519
0.1745395129189573
1.2745811178527113
-0.7553843256549259
-0.87017506516793
-1.2995183970146191
0.43136670602364763
-0.6432419451493487
0.45276713905499566
0.02829147955730206
0.3523273344188261
1.2369381039595384
0.7606551643522503
-1.1225467798855244
-0.40452842837564984
-0.7989224300873985
-0.21219303602447026
-0.6000562036663262
-0.7991275328962976
0.8363163370428688
-1.7463483386067271
0.44272545806432145
-0.028482204614853672
0.7315034422778938
0.15788991395807073
0.2904444388360008
-1.2888732285631541
0.0014646465025937067
-0.9838142464867913
0.913145910992951
-1.7366871194796896
-1.3425630445992713
0.2875228136229999
-0.058683113312181893
-0.7874009803924754
-0.5470461290448071
1.0421618559141472
1.141421109137286
1.6941509378985544
2.2826606240688228
-2.0061322167984508
0.40035453009160354
-0.43073795441209517
0.3659047192803103
1.181235650595166
-0.38712897420569065
-0.724287955594964
-1.0579611069225339
-0.021685629882641187
-0.8049783136666928
-0.4541157451406289
-1.204715671373268
0.17993629746801765
-0.2619620773513751
-1.3410792137881749
-0.23620380376772504
-0.6136333230469966
0.184228079280643
-0.4684990551962136
0.500066846865
-1.101767585610061
-0.5585612938143399
-0.8572855314338633
0.02186550002171237
0.3350090975530158
-0.6100057557227998
0.4696997455879604
-0.6400753039090299
