-1.3529515310342222
0.05076252752016594
-0.7281384235845626
0.8969581868633595
-0.27932643889551134
-0.11661304333187832
-1.0641266316210614
-0.14624716533495824
1.057823101205826
-1.1576140360533407
0.8172404952313136
0.13167354819591134
0.028585466536180645
2.2695048023155118
0.3103480533556011
0.8686996047255947
-1.9917470901397236
-2.247568423447101
0.6416382885382
-1.1317201228212135
-0.044793493505087226
-0.14967008695902373
-0.41854568847018575
-0.40882301241380375
0.5439257599833595
-0.8120371269613025
1.0575056197844195
0.74702739368186
0.5026197355984388
0.18781801805064352
0.009944120998625098
0.7479081660947766
-0.1784938799058945
1.165558584461879
-0.5017111507345634
1.3710918923444062
0.49069319996473354
1.0645396779292107
-0.6972687592132061
1.1009766848281355
1.0785585030000704
-0.5400283136787369
-0.8903663013038052
1.0535904779161849
0.6539925104979066
0.07390315500831902
-0.6818074216476991
-1.351910853747445
0.03881615316259359
0.5679875183119709
0.5127378014575208
-0.8422025560905029
-0.19933691637084064
-0.7292719400163059
1.416152942573669
-1.0211581932809743
-1.3601429546124792
-0.33337996090435873
0.0072416411736405395
1.7396394529054646
-0.22081404649079509
0.24975283580279234
0.7572300110366952
-0.48396386350162207
-1.2802046145184072
-0.5801668475488554
-0.8254720388902579
-1.847855909584394
-0.03290190591453975
-0.44027422711145764
0.06569880284661231
-0.18392530988468478
-0.517008775229885
0.26799661437434896
0.6542138590374865
1.1013969761172502
0.16901752267119902
1.1467846549620224
-1.2841270562123115
1.0199115811691468
-0.5014096023572031
-0.35441081225152804
-1.2764077604155821
1.3905449175732727
1.2084380504415566
0.7478279934682721
1.36741442364804
-0.2311189768418183
-0.6158594197945055
1.2895348640289352
-0.7168751079665122
1.791047806922186
-0.6696200586494133
-1.3973752038484297
0.7045121074623932
0.8319723536889227
-1.7019117321394543
-0.5215032240896926
0.3666544821220966
1.0053375498079589
0.38933315497462
-0.3722022764116505
0.6755805360555994
0.8135496258930186
1.3056333209570585
-1.4159160639478507
-0.3259826754870302
0.2527199936821495
-0.29150608790921095
-1.1261964953010823
1.3392463591418464
-0.7310560985718428
-0.05035292164129633
0.1661129161245288
0.06658093346621677
-0.752234153142213
-0.9733187136654099
-2.4668300142852786
0.831928615070056
0.5575065568516694
0.4043702225474525
-0.4433525429532525
-0.5087301385159403
-0.3791533786875955
-0.710220127495343
1.528146080219466
0.6074679186607185
-0.06174099481754573
