-5.901678817227067
-1.1385264077089712
-5.518414650998953
4.826142162098745
-0.026739964748715768
-0.7739503624009479
-4.186122430693143
0.20636550743714732
2.619540724794909
-5.105229014725898
2.022479007387644
1.5984987741118997
0.4647878465798828
7.3358560848240755
0.6382533223004861
4.196608513627726
-7.304175048125311
-5.131747369064955
3.697233945825655
-5.487968147677076
3.2975491874491625
-1.0075201098746425
-0.6288109362332946
-2.138170177578437
5.384641796562508
-0.42863849931361236
5.725630844101884
4.812573393813344
1.8730313298762888
1.2139491668600733
0.5904794802387544
5.465715036599921
-2.0355617274720013
4.806843724819457
-1.9796338795070818
2.009597945459896
0.38852192689286374
2.9116310456143797
-4.442989166020961
3.490160636031224
2.2842809198957985
-2.6545834339786922
-2.223791478499219
0.7264026669142573
0.39540082927153325
-2.239370126654409
-4.984495205255591
-3.798239158863174
0.40462374597861506
-0.9471498131528823
2.0448865743892743
-2.2676654748137777
-2.052637152847558
0.3252584762773723
3.4215723893981655
-2.0800770768704275
-4.635190329248694
-0.8856520240591866
2.665903130387502
3.574443091868635
-1.9582333096550508
1.8078790626971288
-0.47461458955044217
-2.064720105705603
-3.8811686986976466
-2.728523562979078
-1.6769865894451752
-4.0214542314356585
1.4977396294348764
0.44004038805635254
2.3771108686706994
-1.5149291842294679
-5.729020981450361
0.4466507102481201
2.411519219725073
2.9222239961389462
0.9636797889063192
4.883258264315959
-5.372850117091015
2.3229742034918384
-0.6025111712323525
-0.693831631068916
-2.2558614629045866
3.9528796611783976
5.5334132513624485
4.5106291691399765
3.8695049668375927
0.4877104297627393
-0.32104671413363967
5.231733296692383
-3.5602019514479335
3.0304795269952485
-1.16293269617312
-0.7661905763662153
5.6820790918992685
3.3762227806760476
-5.3063988153713035
-2.2440526778831265
0.2661329461537397
2.2364771228453737
1.1315063877800677
0.27589211463470065
3.3723739550141696
5.524446131876816
5.079767998810642
-4.722140770225687
-1.3676110563202344
0.031631755981657586
-2.357392093748059
1.5355400047522016
3.967396029869929
-5.965264851220987
-3.1804723286312044
0.06713789669802407
2.6205834123117526
-3.364247126773646
-4.78886754969573
-7.47541033683404
1.9585404995936033
3.1652257751956943
1.3457425632091742
-3.2449947303955864
-2.811385481061813
0.8600265160720519
-3.316243213594138
7.562107046408205
-0.6781913642573967
3.1849431127093846
